## MART
## No. of trees = 1000
## No. of leaves = 10
## No. of threshold candidates = 256
## Learning rate = 0.1
## Stop early = 100

<ensemble>
	<tree id="1" weight="0.1">
		<split>
			<feature> 22 </feature>
			<threshold> 8.0 </threshold>
			<split pos="left">
				<feature> 23 </feature>
				<threshold> 78.0 </threshold>
				<split pos="left">
					<output> 0.036191974 </output>
				</split>
				<split pos="right">
					<feature> 27 </feature>
					<threshold> 1986.0 </threshold>
					<split pos="left">
						<output> 0.22590362 </output>
					</split>
					<split pos="right">
						<output> 0.07783312 </output>
					</split>
				</split>
			</split>
			<split pos="right">
				<feature> 22 </feature>
				<threshold> 16.0 </threshold>
				<split pos="left">
					<feature> 23 </feature>
					<threshold> 309.0 </threshold>
					<split pos="left">
						<feature> 22 </feature>
						<threshold> 9.0 </threshold>
						<split pos="left">
							<output> 0.017897371 </output>
						</split>
						<split pos="right">
							<output> 0.0016411203 </output>
						</split>
					</split>
					<split pos="right">
						<output> 0.05114504 </output>
					</split>
				</split>
				<split pos="right">
					<feature> 23 </feature>
					<threshold> 79.0 </threshold>
					<split pos="left">
						<output> 0.10359408 </output>
					</split>
					<split pos="right">
						<feature> 32 </feature>
						<threshold> -39.280746 </threshold>
						<split pos="left">
							<output> 0.001509434 </output>
						</split>
						<split pos="right">
							<feature> 27 </feature>
							<threshold> 2008.0 </threshold>
							<split pos="left">
								<output> 0.043620776 </output>
							</split>
							<split pos="right">
								<output> 0.015614834 </output>
							</split>
						</split>
					</split>
				</split>
			</split>
		</split>
	</tree>
	<tree id="2" weight="0.1">
		<split>
			<feature> 22 </feature>
			<threshold> 8.0 </threshold>
			<split pos="left">
				<feature> 23 </feature>
				<threshold> 78.0 </threshold>
				<split pos="left">
					<output> 0.032572936 </output>
				</split>
				<split pos="right">
					<feature> 27 </feature>
					<threshold> 1986.0 </threshold>
					<split pos="left">
						<output> 0.20331305 </output>
					</split>
					<split pos="right">
						<output> 0.070050776 </output>
					</split>
				</split>
			</split>
			<split pos="right">
				<feature> 22 </feature>
				<threshold> 16.0 </threshold>
				<split pos="left">
					<feature> 23 </feature>
					<threshold> 309.0 </threshold>
					<split pos="left">
						<feature> 22 </feature>
						<threshold> 9.0 </threshold>
						<split pos="left">
							<output> 0.016106442 </output>
						</split>
						<split pos="right">
							<output> 0.0014745946 </output>
						</split>
					</split>
					<split pos="right">
						<output> 0.0460303 </output>
					</split>
				</split>
				<split pos="right">
					<feature> 23 </feature>
					<threshold> 79.0 </threshold>
					<split pos="left">
						<output> 0.09323371 </output>
					</split>
					<split pos="right">
						<feature> 32 </feature>
						<threshold> -39.280746 </threshold>
						<split pos="left">
							<output> 0.0013585024 </output>
						</split>
						<split pos="right">
							<feature> 27 </feature>
							<threshold> 2008.0 </threshold>
							<split pos="left">
								<output> 0.039257526 </output>
							</split>
							<split pos="right">
								<output> 0.014053271 </output>
							</split>
						</split>
					</split>
				</split>
			</split>
		</split>
	</tree>
	<tree id="3" weight="0.1">
		<split>
			<feature> 22 </feature>
			<threshold> 8.0 </threshold>
			<split pos="left">
				<feature> 23 </feature>
				<threshold> 78.0 </threshold>
				<split pos="left">
					<output> 0.0293153 </output>
				</split>
				<split pos="right">
					<feature> 27 </feature>
					<threshold> 1987.0 </threshold>
					<split pos="left">
						<output> 0.17722142 </output>
					</split>
					<split pos="right">
						<output> 0.061645232 </output>
					</split>
				</split>
			</split>
			<split pos="right">
				<feature> 22 </feature>
				<threshold> 16.0 </threshold>
				<split pos="left">
					<feature> 23 </feature>
					<threshold> 309.0 </threshold>
					<split pos="left">
						<feature> 22 </feature>
						<threshold> 9.0 </threshold>
						<split pos="left">
							<output> 0.014496373 </output>
						</split>
						<split pos="right">
							<output> 0.0013286598 </output>
						</split>
					</split>
					<split pos="right">
						<output> 0.0414279 </output>
					</split>
				</split>
				<split pos="right">
					<feature> 23 </feature>
					<threshold> 79.0 </threshold>
					<split pos="left">
						<output> 0.08391067 </output>
					</split>
					<split pos="right">
						<feature> 32 </feature>
						<threshold> -39.280746 </threshold>
						<split pos="left">
							<output> 0.0012226297 </output>
						</split>
						<split pos="right">
							<feature> 22 </feature>
							<threshold> 17.0 </threshold>
							<split pos="left">
								<output> 0.0474151 </output>
							</split>
							<split pos="right">
								<output> 0.022939377 </output>
							</split>
						</split>
					</split>
				</split>
			</split>
		</split>
	</tree>
	<tree id="4" weight="0.1">
		<split>
			<feature> 22 </feature>
			<threshold> 8.0 </threshold>
			<split pos="left">
				<feature> 32 </feature>
				<threshold> -28.866032 </threshold>
				<split pos="left">
					<output> -0.004801806 </output>
				</split>
				<split pos="right">
					<feature> 23 </feature>
					<threshold> 78.0 </threshold>
					<split pos="left">
						<output> 0.03371192 </output>
					</split>
					<split pos="right">
						<output> 0.09356738 </output>
					</split>
				</split>
			</split>
			<split pos="right">
				<feature> 22 </feature>
				<threshold> 16.0 </threshold>
				<split pos="left">
					<feature> 23 </feature>
					<threshold> 309.0 </threshold>
					<split pos="left">
						<feature> 22 </feature>
						<threshold> 9.0 </threshold>
						<split pos="left">
							<output> 0.013046836 </output>
						</split>
						<split pos="right">
							<output> 0.0011973483 </output>
						</split>
					</split>
					<split pos="right">
						<output> 0.037285026 </output>
					</split>
				</split>
				<split pos="right">
					<feature> 23 </feature>
					<threshold> 79.0 </threshold>
					<split pos="left">
						<feature> 31 </feature>
						<threshold> 79.83375 </threshold>
						<split pos="left">
							<output> 0.04894881 </output>
						</split>
						<split pos="right">
							<output> 0.1938286 </output>
						</split>
					</split>
					<split pos="right">
						<feature> 28 </feature>
						<threshold> 0.013427608 </threshold>
						<split pos="left">
							<output> 0.01772163 </output>
						</split>
						<split pos="right">
							<output> 0.052393522 </output>
						</split>
					</split>
				</split>
			</split>
		</split>
	</tree>
	<tree id="5" weight="0.1">
		<split>
			<feature> 22 </feature>
			<threshold> 8.0 </threshold>
			<split pos="left">
				<feature> 29 </feature>
				<threshold> 0.03696498 </threshold>
				<split pos="left">
					<feature> 23 </feature>
					<threshold> 78.0 </threshold>
					<split pos="left">
						<output> 0.015423765 </output>
					</split>
					<split pos="right">
						<output> 0.06674112 </output>
					</split>
				</split>
				<split pos="right">
					<output> 0.16024812 </output>
				</split>
			</split>
			<split pos="right">
				<feature> 22 </feature>
				<threshold> 16.0 </threshold>
				<split pos="left">
					<feature> 23 </feature>
					<threshold> 309.0 </threshold>
					<split pos="left">
						<feature> 28 </feature>
						<threshold> 0.016837798 </threshold>
						<split pos="left">
							<feature> 23 </feature>
							<threshold> 44.0 </threshold>
							<split pos="left">
								<output> 0.005084001 </output>
							</split>
							<split pos="right">
								<output> 1.8102645E-4 </output>
							</split>
						</split>
						<split pos="right">
							<output> 0.022301704 </output>
						</split>
					</split>
					<split pos="right">
						<output> 0.03355579 </output>
					</split>
				</split>
				<split pos="right">
					<feature> 28 </feature>
					<threshold> 0.014280155 </threshold>
					<split pos="left">
						<feature> 19 </feature>
						<threshold> 22.703125 </threshold>
						<split pos="left">
							<output> 0.0894793 </output>
						</split>
						<split pos="right">
							<output> 0.019088805 </output>
						</split>
					</split>
					<split pos="right">
						<output> 0.086224325 </output>
					</split>
				</split>
			</split>
		</split>
	</tree>
	<tree id="6" weight="0.1">
		<split>
			<feature> 22 </feature>
			<threshold> 8.0 </threshold>
			<split pos="left">
				<feature> 20 </feature>
				<threshold> 13.0 </threshold>
				<split pos="left">
					<output> 0.015364669 </output>
				</split>
				<split pos="right">
					<output> 0.060383026 </output>
				</split>
			</split>
			<split pos="right">
				<feature> 22 </feature>
				<threshold> 16.0 </threshold>
				<split pos="left">
					<feature> 23 </feature>
					<threshold> 309.0 </threshold>
					<split pos="left">
						<feature> 28 </feature>
						<threshold> 0.019608578 </threshold>
						<split pos="left">
							<feature> 22 </feature>
							<threshold> 9.0 </threshold>
							<split pos="left">
								<output> 0.008394873 </output>
							</split>
							<split pos="right">
								<output> 7.1499625E-4 </output>
							</split>
						</split>
						<split pos="right">
							<output> 0.022321008 </output>
						</split>
					</split>
					<split pos="right">
						<output> 0.0302009 </output>
					</split>
				</split>
				<split pos="right">
					<feature> 23 </feature>
					<threshold> 79.0 </threshold>
					<split pos="left">
						<output> 0.06446172 </output>
					</split>
					<split pos="right">
						<feature> 28 </feature>
						<threshold> 0.0068203663 </threshold>
						<split pos="left">
							<output> -0.0027197518 </output>
						</split>
						<split pos="right">
							<feature> 27 </feature>
							<threshold> 2008.0 </threshold>
							<split pos="left">
								<output> 0.027285274 </output>
							</split>
							<split pos="right">
								<output> 0.004707535 </output>
							</split>
						</split>
					</split>
				</split>
			</split>
		</split>
	</tree>
	<tree id="7" weight="0.1">
		<split>
			<feature> 22 </feature>
			<threshold> 8.0 </threshold>
			<split pos="left">
				<feature> 32 </feature>
				<threshold> -28.866032 </threshold>
				<split pos="left">
					<output> -0.01132184 </output>
				</split>
				<split pos="right">
					<feature> 23 </feature>
					<threshold> 78.0 </threshold>
					<split pos="left">
						<output> 0.02379996 </output>
					</split>
					<split pos="right">
						<output> 0.07337294 </output>
					</split>
				</split>
			</split>
			<split pos="right">
				<feature> 22 </feature>
				<threshold> 16.0 </threshold>
				<split pos="left">
					<feature> 23 </feature>
					<threshold> 309.0 </threshold>
					<split pos="left">
						<feature> 28 </feature>
						<threshold> 0.015772114 </threshold>
						<split pos="left">
							<feature> 32 </feature>
							<threshold> 212.75563 </threshold>
							<split pos="left">
								<output> 0.0011284701 </output>
							</split>
							<split pos="right">
								<output> 0.99885595 </output>
							</split>
						</split>
						<split pos="right">
							<output> 0.017941097 </output>
						</split>
					</split>
					<split pos="right">
						<output> 0.027180748 </output>
					</split>
				</split>
				<split pos="right">
					<feature> 32 </feature>
					<threshold> 148.18428 </threshold>
					<split pos="left">
						<feature> 19 </feature>
						<threshold> 22.703125 </threshold>
						<split pos="left">
							<output> 0.07849968 </output>
						</split>
						<split pos="right">
							<output> 0.014235039 </output>
						</split>
					</split>
					<split pos="right">
						<output> 0.07365513 </output>
					</split>
				</split>
			</split>
		</split>
	</tree>
	<tree id="8" weight="0.1">
		<split>
			<feature> 22 </feature>
			<threshold> 8.0 </threshold>
			<split pos="left">
				<feature> 28 </feature>
				<threshold> 0.0138538815 </threshold>
				<split pos="left">
					<feature> 23 </feature>
					<threshold> 78.0 </threshold>
					<split pos="left">
						<output> 0.0059503517 </output>
					</split>
					<split pos="right">
						<output> 0.048432853 </output>
					</split>
				</split>
				<split pos="right">
					<output> 0.097240716 </output>
				</split>
			</split>
			<split pos="right">
				<feature> 22 </feature>
				<threshold> 22.0 </threshold>
				<split pos="left">
					<feature> 23 </feature>
					<threshold> 34.0 </threshold>
					<split pos="left">
						<output> 0.084674455 </output>
					</split>
					<split pos="right">
						<feature> 28 </feature>
						<threshold> 0.012361923 </threshold>
						<split pos="left">
							<feature> 22 </feature>
							<threshold> 14.0 </threshold>
							<split pos="left">
								<feature> 23 </feature>
								<threshold> 309.0 </threshold>
								<split pos="left">
									<output> 3.9501532E-4 </output>
								</split>
								<split pos="right">
									<output> 0.017242638 </output>
								</split>
							</split>
							<split pos="right">
								<output> 0.009735685 </output>
							</split>
						</split>
						<split pos="right">
							<feature> 22 </feature>
							<threshold> 9.0 </threshold>
							<split pos="left">
								<output> 0.069541164 </output>
							</split>
							<split pos="right">
								<output> 0.0061452603 </output>
							</split>
						</split>
					</split>
				</split>
				<split pos="right">
					<output> 0.049292307 </output>
				</split>
			</split>
		</split>
	</tree>
	<tree id="9" weight="0.1">
		<split>
			<feature> 22 </feature>
			<threshold> 8.0 </threshold>
			<split pos="left">
				<feature> 20 </feature>
				<threshold> 10.0 </threshold>
				<split pos="left">
					<output> -0.0047292574 </output>
				</split>
				<split pos="right">
					<feature> 27 </feature>
					<threshold> 1983.0 </threshold>
					<split pos="left">
						<output> 0.12534118 </output>
					</split>
					<split pos="right">
						<output> 0.033147387 </output>
					</split>
				</split>
			</split>
			<split pos="right">
				<feature> 22 </feature>
				<threshold> 22.0 </threshold>
				<split pos="left">
					<feature> 23 </feature>
					<threshold> 34.0 </threshold>
					<split pos="left">
						<output> 0.076207146 </output>
					</split>
					<split pos="right">
						<feature> 28 </feature>
						<threshold> 0.016624661 </threshold>
						<split pos="left">
							<feature> 22 </feature>
							<threshold> 14.0 </threshold>
							<split pos="left">
								<feature> 23 </feature>
								<threshold> 309.0 </threshold>
								<split pos="left">
									<feature> 22 </feature>
									<threshold> 9.0 </threshold>
									<split pos="left">
										<output> 0.006669244 </output>
									</split>
									<split pos="right">
										<output> 1.5822164E-4 </output>
									</split>
								</split>
								<split pos="right">
									<output> 0.021566711 </output>
								</split>
							</split>
							<split pos="right">
								<output> 0.009252411 </output>
							</split>
						</split>
						<split pos="right">
							<output> 0.018120777 </output>
						</split>
					</split>
				</split>
				<split pos="right">
					<output> 0.044363394 </output>
				</split>
			</split>
		</split>
	</tree>
	<tree id="10" weight="0.1">
		<split>
			<feature> 22 </feature>
			<threshold> 8.0 </threshold>
			<split pos="left">
				<feature> 29 </feature>
				<threshold> 0.03696498 </threshold>
				<split pos="left">
					<feature> 23 </feature>
					<threshold> 78.0 </threshold>
					<split pos="left">
						<output> 0.004816036 </output>
					</split>
					<split pos="right">
						<output> 0.042229544 </output>
					</split>
				</split>
				<split pos="right">
					<output> 0.12365864 </output>
				</split>
			</split>
			<split pos="right">
				<feature> 22 </feature>
				<threshold> 22.0 </threshold>
				<split pos="left">
					<feature> 23 </feature>
					<threshold> 34.0 </threshold>
					<split pos="left">
						<output> 0.06858637 </output>
					</split>
					<split pos="right">
						<feature> 28 </feature>
						<threshold> 0.012361923 </threshold>
						<split pos="left">
							<feature> 22 </feature>
							<threshold> 14.0 </threshold>
							<split pos="left">
								<feature> 30 </feature>
								<threshold> 13.373338 </threshold>
								<split pos="left">
									<output> -0.0010462648 </output>
								</split>
								<split pos="right">
									<output> 0.0018645761 </output>
								</split>
							</split>
							<split pos="right">
								<output> 0.0078367 </output>
							</split>
						</split>
						<split pos="right">
							<feature> 22 </feature>
							<threshold> 9.0 </threshold>
							<split pos="left">
								<output> 0.061655674 </output>
							</split>
							<split pos="right">
								<output> 0.0049734353 </output>
							</split>
						</split>
					</split>
				</split>
				<split pos="right">
					<output> 0.03992695 </output>
				</split>
			</split>
		</split>
	</tree>
	<tree id="11" weight="0.1">
		<split>
			<feature> 22 </feature>
			<threshold> 8.0 </threshold>
			<split pos="left">
				<feature> 28 </feature>
				<threshold> 0.007246639 </threshold>
				<split pos="left">
					<output> -0.016978802 </output>
				</split>
				<split pos="right">
					<feature> 20 </feature>
					<threshold> 13.0 </threshold>
					<split pos="left">
						<output> 0.008964339 </output>
					</split>
					<split pos="right">
						<output> 0.0504432 </output>
					</split>
				</split>
			</split>
			<split pos="right">
				<feature> 22 </feature>
				<threshold> 16.0 </threshold>
				<split pos="left">
					<feature> 23 </feature>
					<threshold> 309.0 </threshold>
					<split pos="left">
						<feature> 22 </feature>
						<threshold> 9.0 </threshold>
						<split pos="left">
							<output> 0.008170112 </output>
						</split>
						<split pos="right">
							<output> 3.1394156E-4 </output>
						</split>
					</split>
					<split pos="right">
						<output> 0.02064548 </output>
					</split>
				</split>
				<split pos="right">
					<feature> 27 </feature>
					<threshold> 1999.0 </threshold>
					<split pos="left">
						<output> 0.04481935 </output>
					</split>
					<split pos="right">
						<feature> 32 </feature>
						<threshold> 183.59438 </threshold>
						<split pos="left">
							<feature> 27 </feature>
							<threshold> 2009.0 </threshold>
							<split pos="left">
								<output> 0.009938979 </output>
							</split>
							<split pos="right">
								<output> -0.012433369 </output>
							</split>
						</split>
						<split pos="right">
							<output> 0.094461806 </output>
						</split>
					</split>
				</split>
			</split>
		</split>
	</tree>
	<tree id="12" weight="0.1">
		<split>
			<feature> 28 </feature>
			<threshold> 0.014280155 </threshold>
			<split pos="left">
				<feature> 32 </feature>
				<threshold> 212.75563 </threshold>
				<split pos="left">
					<feature> 22 </feature>
					<threshold> 8.0 </threshold>
					<split pos="left">
						<output> 0.0151577825 </output>
					</split>
					<split pos="right">
						<feature> 23 </feature>
						<threshold> 34.0 </threshold>
						<split pos="left">
							<output> 0.05162751 </output>
						</split>
						<split pos="right">
							<feature> 22 </feature>
							<threshold> 14.0 </threshold>
							<split pos="left">
								<output> 4.4424157E-4 </output>
							</split>
							<split pos="right">
								<feature> 32 </feature>
								<threshold> -39.280746 </threshold>
								<split pos="left">
									<output> -0.010959458 </output>
								</split>
								<split pos="right">
									<feature> 33 </feature>
									<threshold> 0.011940299 </threshold>
									<split pos="left">
										<feature> 33 </feature>
										<threshold> 0.004076878 </threshold>
										<split pos="left">
											<output> -0.0063713477 </output>
										</split>
										<split pos="right">
											<feature> 27 </feature>
											<threshold> 1999.0 </threshold>
											<split pos="left">
												<output> 0.027873604 </output>
											</split>
											<split pos="right">
												<output> 0.006958245 </output>
											</split>
										</split>
									</split>
									<split pos="right">
										<output> 0.28988206 </output>
									</split>
								</split>
							</split>
						</split>
					</split>
				</split>
				<split pos="right">
					<output> 0.89781123 </output>
				</split>
			</split>
			<split pos="right">
				<output> 0.01627089 </output>
			</split>
		</split>
	</tree>
	<tree id="13" weight="0.1">
		<split>
			<feature> 22 </feature>
			<threshold> 22.0 </threshold>
			<split pos="left">
				<feature> 22 </feature>
				<threshold> 8.0 </threshold>
				<split pos="left">
					<feature> 29 </feature>
					<threshold> 0.03696498 </threshold>
					<split pos="left">
						<feature> 23 </feature>
						<threshold> 78.0 </threshold>
						<split pos="left">
							<output> 5.6106347E-4 </output>
						</split>
						<split pos="right">
							<output> 0.034328382 </output>
						</split>
					</split>
					<split pos="right">
						<output> 0.105794504 </output>
					</split>
				</split>
				<split pos="right">
					<feature> 23 </feature>
					<threshold> 34.0 </threshold>
					<split pos="left">
						<output> 0.05584232 </output>
					</split>
					<split pos="right">
						<feature> 28 </feature>
						<threshold> 0.019608578 </threshold>
						<split pos="left">
							<feature> 23 </feature>
							<threshold> 309.0 </threshold>
							<split pos="left">
								<feature> 22 </feature>
								<threshold> 14.0 </threshold>
								<split pos="left">
									<feature> 22 </feature>
									<threshold> 9.0 </threshold>
									<split pos="left">
										<output> 0.0047463174 </output>
									</split>
									<split pos="right">
										<output> -8.845918E-5 </output>
									</split>
								</split>
								<split pos="right">
									<output> 0.0059477813 </output>
								</split>
							</split>
							<split pos="right">
								<output> 0.01743889 </output>
							</split>
						</split>
						<split pos="right">
							<output> 0.01498764 </output>
						</split>
					</split>
				</split>
			</split>
			<split pos="right">
				<output> 0.03273878 </output>
			</split>
		</split>
	</tree>
	<tree id="14" weight="0.1">
		<split>
			<feature> 28 </feature>
			<threshold> 0.014280155 </threshold>
			<split pos="left">
				<feature> 32 </feature>
				<threshold> 212.75563 </threshold>
				<split pos="left">
					<feature> 28 </feature>
					<threshold> 0.007246639 </threshold>
					<split pos="left">
						<output> -0.0023690003 </output>
					</split>
					<split pos="right">
						<feature> 22 </feature>
						<threshold> 9.0 </threshold>
						<split pos="left">
							<feature> 23 </feature>
							<threshold> 78.0 </threshold>
							<split pos="left">
								<output> 0.0072052157 </output>
							</split>
							<split pos="right">
								<output> 0.044174653 </output>
							</split>
						</split>
						<split pos="right">
							<feature> 22 </feature>
							<threshold> 16.0 </threshold>
							<split pos="left">
								<output> 8.367719E-4 </output>
							</split>
							<split pos="right">
								<feature> 27 </feature>
								<threshold> 2003.0 </threshold>
								<split pos="left">
									<output> 0.033946604 </output>
								</split>
								<split pos="right">
									<output> -9.470557E-4 </output>
								</split>
							</split>
						</split>
					</split>
				</split>
				<split pos="right">
					<output> 0.80803895 </output>
				</split>
			</split>
			<split pos="right">
				<feature> 22 </feature>
				<threshold> 22.0 </threshold>
				<split pos="left">
					<feature> 22 </feature>
					<threshold> 9.0 </threshold>
					<split pos="left">
						<output> 0.07049134 </output>
					</split>
					<split pos="right">
						<output> 0.0023383806 </output>
					</split>
				</split>
				<split pos="right">
					<output> 0.12865843 </output>
				</split>
			</split>
		</split>
	</tree>
	<tree id="15" weight="0.1">
		<split>
			<feature> 28 </feature>
			<threshold> 0.014280155 </threshold>
			<split pos="left">
				<feature> 32 </feature>
				<threshold> 212.75563 </threshold>
				<split pos="left">
					<feature> 28 </feature>
					<threshold> 0.007246639 </threshold>
					<split pos="left">
						<output> -0.0021308898 </output>
					</split>
					<split pos="right">
						<feature> 22 </feature>
						<threshold> 9.0 </threshold>
						<split pos="left">
							<feature> 23 </feature>
							<threshold> 78.0 </threshold>
							<split pos="left">
								<output> 0.006484615 </output>
							</split>
							<split pos="right">
								<output> 0.039757255 </output>
							</split>
						</split>
						<split pos="right">
							<feature> 23 </feature>
							<threshold> 309.0 </threshold>
							<split pos="left">
								<feature> 22 </feature>
								<threshold> 14.0 </threshold>
								<split pos="left">
									<output> 1.55441E-4 </output>
								</split>
								<split pos="right">
									<feature> 33 </feature>
									<threshold> 0.011940299 </threshold>
									<split pos="left">
										<feature> 23 </feature>
										<threshold> 34.0 </threshold>
										<split pos="left">
											<output> 0.043890964 </output>
										</split>
										<split pos="right">
											<output> 0.00787676 </output>
										</split>
									</split>
									<split pos="right">
										<output> 0.3008165 </output>
									</split>
								</split>
							</split>
							<split pos="right">
								<output> 0.026705718 </output>
							</split>
						</split>
					</split>
				</split>
				<split pos="right">
					<output> 0.7272351 </output>
				</split>
			</split>
			<split pos="right">
				<output> 0.012393086 </output>
			</split>
		</split>
	</tree>
	<tree id="16" weight="0.1">
		<split>
			<feature> 22 </feature>
			<threshold> 22.0 </threshold>
			<split pos="left">
				<feature> 22 </feature>
				<threshold> 9.0 </threshold>
				<split pos="left">
					<feature> 28 </feature>
					<threshold> 0.014280155 </threshold>
					<split pos="left">
						<feature> 32 </feature>
						<threshold> -28.866032 </threshold>
						<split pos="left">
							<output> -0.010806889 </output>
						</split>
						<split pos="right">
							<feature> 23 </feature>
							<threshold> 78.0 </threshold>
							<split pos="left">
								<output> 0.0059282864 </output>
							</split>
							<split pos="right">
								<output> 0.03518672 </output>
							</split>
						</split>
					</split>
					<split pos="right">
						<output> 0.062203303 </output>
					</split>
				</split>
				<split pos="right">
					<feature> 23 </feature>
					<threshold> 34.0 </threshold>
					<split pos="left">
						<output> 0.045424502 </output>
					</split>
					<split pos="right">
						<feature> 23 </feature>
						<threshold> 309.0 </threshold>
						<split pos="left">
							<feature> 27 </feature>
							<threshold> 2010.0 </threshold>
							<split pos="left">
								<feature> 22 </feature>
								<threshold> 16.0 </threshold>
								<split pos="left">
									<output> -7.378596E-4 </output>
								</split>
								<split pos="right">
									<output> 0.0069006174 </output>
								</split>
							</split>
							<split pos="right">
								<output> 0.004185655 </output>
							</split>
						</split>
						<split pos="right">
							<output> 0.014566753 </output>
						</split>
					</split>
				</split>
			</split>
			<split pos="right">
				<output> 0.025734793 </output>
			</split>
		</split>
	</tree>
	<tree id="17" weight="0.1">
		<split>
			<feature> 22 </feature>
			<threshold> 22.0 </threshold>
			<split pos="left">
				<feature> 22 </feature>
				<threshold> 9.0 </threshold>
				<split pos="left">
					<feature> 29 </feature>
					<threshold> 0.028301887 </threshold>
					<split pos="left">
						<feature> 28 </feature>
						<threshold> 0.007246639 </threshold>
						<split pos="left">
							<output> -0.009741773 </output>
						</split>
						<split pos="right">
							<feature> 21 </feature>
							<threshold> 39.0 </threshold>
							<split pos="left">
								<feature> 23 </feature>
								<threshold> 78.0 </threshold>
								<split pos="left">
									<output> 0.010304767 </output>
								</split>
								<split pos="right">
									<output> 0.056811146 </output>
								</split>
							</split>
							<split pos="right">
								<output> -0.006265379 </output>
							</split>
						</split>
					</split>
					<split pos="right">
						<output> 0.08925009 </output>
					</split>
				</split>
				<split pos="right">
					<feature> 23 </feature>
					<threshold> 34.0 </threshold>
					<split pos="left">
						<output> 0.040881954 </output>
					</split>
					<split pos="right">
						<feature> 23 </feature>
						<threshold> 309.0 </threshold>
						<split pos="left">
							<feature> 27 </feature>
							<threshold> 2010.0 </threshold>
							<split pos="left">
								<output> -1.8337157E-4 </output>
							</split>
							<split pos="right">
								<output> 0.0037672897 </output>
							</split>
						</split>
						<split pos="right">
							<output> 0.01311013 </output>
						</split>
					</split>
				</split>
			</split>
			<split pos="right">
				<output> 0.023161346 </output>
			</split>
		</split>
	</tree>
	<tree id="18" weight="0.1">
		<split>
			<feature> 28 </feature>
			<threshold> 0.011722513 </threshold>
			<split pos="left">
				<feature> 28 </feature>
				<threshold> 0.007246639 </threshold>
				<split pos="left">
					<output> -0.0018159015 </output>
				</split>
				<split pos="right">
					<feature> 22 </feature>
					<threshold> 9.0 </threshold>
					<split pos="left">
						<feature> 21 </feature>
						<threshold> 39.0 </threshold>
						<split pos="left">
							<feature> 23 </feature>
							<threshold> 78.0 </threshold>
							<split pos="left">
								<output> 0.007501096 </output>
							</split>
							<split pos="right">
								<output> 0.05510284 </output>
							</split>
						</split>
						<split pos="right">
							<output> -0.0121446885 </output>
						</split>
					</split>
					<split pos="right">
						<feature> 22 </feature>
						<threshold> 22.0 </threshold>
						<split pos="left">
							<feature> 23 </feature>
							<threshold> 309.0 </threshold>
							<split pos="left">
								<output> 4.395098E-4 </output>
							</split>
							<split pos="right">
								<output> 0.016772581 </output>
							</split>
						</split>
						<split pos="right">
							<output> 0.023061872 </output>
						</split>
					</split>
				</split>
			</split>
			<split pos="right">
				<feature> 22 </feature>
				<threshold> 22.0 </threshold>
				<split pos="left">
					<feature> 22 </feature>
					<threshold> 9.0 </threshold>
					<split pos="left">
						<output> 0.036953196 </output>
					</split>
					<split pos="right">
						<output> 0.0022840847 </output>
					</split>
				</split>
				<split pos="right">
					<output> 0.08640426 </output>
				</split>
			</split>
		</split>
	</tree>
	<tree id="19" weight="0.1">
		<split>
			<feature> 28 </feature>
			<threshold> 0.011722513 </threshold>
			<split pos="left">
				<feature> 28 </feature>
				<threshold> 0.007246639 </threshold>
				<split pos="left">
					<output> -0.0016352582 </output>
				</split>
				<split pos="right">
					<feature> 22 </feature>
					<threshold> 9.0 </threshold>
					<split pos="left">
						<feature> 21 </feature>
						<threshold> 36.0 </threshold>
						<split pos="left">
							<output> 0.014639179 </output>
						</split>
						<split pos="right">
							<output> -0.008300599 </output>
						</split>
					</split>
					<split pos="right">
						<feature> 22 </feature>
						<threshold> 22.0 </threshold>
						<split pos="left">
							<feature> 23 </feature>
							<threshold> 309.0 </threshold>
							<split pos="left">
								<feature> 22 </feature>
								<threshold> 14.0 </threshold>
								<split pos="left">
									<output> -9.858095E-5 </output>
								</split>
								<split pos="right">
									<output> 0.004774977 </output>
								</split>
							</split>
							<split pos="right">
								<output> 0.0150953485 </output>
							</split>
						</split>
						<split pos="right">
							<output> 0.020755662 </output>
						</split>
					</split>
				</split>
			</split>
			<split pos="right">
				<feature> 22 </feature>
				<threshold> 22.0 </threshold>
				<split pos="left">
					<feature> 22 </feature>
					<threshold> 9.0 </threshold>
					<split pos="left">
						<output> 0.03325753 </output>
					</split>
					<split pos="right">
						<output> 0.0020554892 </output>
					</split>
				</split>
				<split pos="right">
					<output> 0.07776389 </output>
				</split>
			</split>
		</split>
	</tree>
	<tree id="20" weight="0.1">
		<split>
			<feature> 32 </feature>
			<threshold> 183.59438 </threshold>
			<split pos="left">
				<feature> 20 </feature>
				<threshold> 13.0 </threshold>
				<split pos="left">
					<feature> 22 </feature>
					<threshold> 8.0 </threshold>
					<split pos="left">
						<output> -0.00827927 </output>
					</split>
					<split pos="right">
						<feature> 33 </feature>
						<threshold> 0.008196721 </threshold>
						<split pos="left">
							<output> -0.002306146 </output>
						</split>
						<split pos="right">
							<feature> 22 </feature>
							<threshold> 14.0 </threshold>
							<split pos="left">
								<output> -2.188139E-5 </output>
							</split>
							<split pos="right">
								<feature> 27 </feature>
								<threshold> 2005.0 </threshold>
								<split pos="left">
									<output> 0.011774638 </output>
								</split>
								<split pos="right">
									<output> -0.002527646 </output>
								</split>
							</split>
						</split>
					</split>
				</split>
				<split pos="right">
					<feature> 22 </feature>
					<threshold> 9.0 </threshold>
					<split pos="left">
						<feature> 28 </feature>
						<threshold> 0.0138538815 </threshold>
						<split pos="left">
							<output> 0.008996618 </output>
						</split>
						<split pos="right">
							<output> 0.067683086 </output>
						</split>
					</split>
					<split pos="right">
						<feature> 22 </feature>
						<threshold> 16.0 </threshold>
						<split pos="left">
							<output> 7.4006006E-4 </output>
						</split>
						<split pos="right">
							<output> 0.015199438 </output>
						</split>
					</split>
				</split>
			</split>
			<split pos="right">
				<output> 0.020480042 </output>
			</split>
		</split>
	</tree>
	<tree id="21" weight="0.1">
		<split>
			<feature> 23 </feature>
			<threshold> 34.0 </threshold>
			<split pos="left">
				<output> 0.035218105 </output>
			</split>
			<split pos="right">
				<feature> 28 </feature>
				<threshold> 0.014280155 </threshold>
				<split pos="left">
					<feature> 32 </feature>
					<threshold> 212.75563 </threshold>
					<split pos="left">
						<feature> 32 </feature>
						<threshold> -39.280746 </threshold>
						<split pos="left">
							<output> -0.0020425967 </output>
						</split>
						<split pos="right">
							<feature> 20 </feature>
							<threshold> 12.0 </threshold>
							<split pos="left">
								<feature> 22 </feature>
								<threshold> 8.0 </threshold>
								<split pos="left">
									<output> -0.010590017 </output>
								</split>
								<split pos="right">
									<feature> 23 </feature>
									<threshold> 309.0 </threshold>
									<split pos="left">
										<output> 4.9256184E-4 </output>
									</split>
									<split pos="right">
										<output> -0.016843336 </output>
									</split>
								</split>
							</split>
							<split pos="right">
								<feature> 22 </feature>
								<threshold> 8.0 </threshold>
								<split pos="left">
									<output> 0.019765366 </output>
								</split>
								<split pos="right">
									<feature> 23 </feature>
									<threshold> 309.0 </threshold>
									<split pos="left">
										<output> 0.0012430112 </output>
									</split>
									<split pos="right">
										<output> 0.031438213 </output>
									</split>
								</split>
							</split>
						</split>
					</split>
					<split pos="right">
						<output> 0.6521217 </output>
					</split>
				</split>
				<split pos="right">
					<output> 0.006808039 </output>
				</split>
			</split>
		</split>
	</tree>
	<tree id="22" weight="0.1">
		<split>
			<feature> 32 </feature>
			<threshold> 183.59438 </threshold>
			<split pos="left">
				<feature> 28 </feature>
				<threshold> 0.051578935 </threshold>
				<split pos="left">
					<feature> 20 </feature>
					<threshold> 12.0 </threshold>
					<split pos="left">
						<feature> 22 </feature>
						<threshold> 8.0 </threshold>
						<split pos="left">
							<output> -0.008295561 </output>
						</split>
						<split pos="right">
							<feature> 23 </feature>
							<threshold> 309.0 </threshold>
							<split pos="left">
								<feature> 33 </feature>
								<threshold> 0.008196721 </threshold>
								<split pos="left">
									<output> -0.0018926326 </output>
								</split>
								<split pos="right">
									<feature> 22 </feature>
									<threshold> 14.0 </threshold>
									<split pos="left">
										<output> -9.677552E-5 </output>
									</split>
									<split pos="right">
										<output> 0.004032198 </output>
									</split>
								</split>
							</split>
							<split pos="right">
								<output> -0.013904817 </output>
							</split>
						</split>
					</split>
					<split pos="right">
						<feature> 22 </feature>
						<threshold> 9.0 </threshold>
						<split pos="left">
							<output> 0.011454565 </output>
						</split>
						<split pos="right">
							<feature> 22 </feature>
							<threshold> 22.0 </threshold>
							<split pos="left">
								<output> 9.095146E-4 </output>
							</split>
							<split pos="right">
								<output> 0.029459288 </output>
							</split>
						</split>
					</split>
				</split>
				<split pos="right">
					<output> 0.29998115 </output>
				</split>
			</split>
			<split pos="right">
				<output> 0.017789869 </output>
			</split>
		</split>
	</tree>
	<tree id="23" weight="0.1">
		<split>
			<feature> 23 </feature>
			<threshold> 34.0 </threshold>
			<split pos="left">
				<output> 0.031484574 </output>
			</split>
			<split pos="right">
				<feature> 32 </feature>
				<threshold> 214.83858 </threshold>
				<split pos="left">
					<feature> 28 </feature>
					<threshold> 0.051578935 </threshold>
					<split pos="left">
						<feature> 28 </feature>
						<threshold> 0.007246639 </threshold>
						<split pos="left">
							<output> -0.0013992183 </output>
						</split>
						<split pos="right">
							<feature> 22 </feature>
							<threshold> 22.0 </threshold>
							<split pos="left">
								<feature> 22 </feature>
								<threshold> 9.0 </threshold>
								<split pos="left">
									<feature> 20 </feature>
									<threshold> 8.0 </threshold>
									<split pos="left">
										<output> -0.009037779 </output>
									</split>
									<split pos="right">
										<feature> 21 </feature>
										<threshold> 39.0 </threshold>
										<split pos="left">
											<output> 0.019783955 </output>
										</split>
										<split pos="right">
											<output> -0.0049214973 </output>
										</split>
									</split>
								</split>
								<split pos="right">
									<feature> 23 </feature>
									<threshold> 309.0 </threshold>
									<split pos="left">
										<output> -4.6573274E-5 </output>
									</split>
									<split pos="right">
										<output> 0.019231038 </output>
									</split>
								</split>
							</split>
							<split pos="right">
								<output> 0.02945448 </output>
							</split>
						</split>
					</split>
					<split pos="right">
						<output> 0.26998302 </output>
					</split>
				</split>
				<split pos="right">
					<output> 0.019418813 </output>
				</split>
			</split>
		</split>
	</tree>
	<tree id="24" weight="0.1">
		<split>
			<feature> 28 </feature>
			<threshold> 0.011722513 </threshold>
			<split pos="left">
				<feature> 22 </feature>
				<threshold> 21.0 </threshold>
				<split pos="left">
					<feature> 22 </feature>
					<threshold> 16.0 </threshold>
					<split pos="left">
						<feature> 20 </feature>
						<threshold> 14.0 </threshold>
						<split pos="left">
							<feature> 23 </feature>
							<threshold> 309.0 </threshold>
							<split pos="left">
								<feature> 22 </feature>
								<threshold> 8.0 </threshold>
								<split pos="left">
									<output> -0.007026362 </output>
								</split>
								<split pos="right">
									<output> -5.652799E-5 </output>
								</split>
							</split>
							<split pos="right">
								<output> -0.016801413 </output>
							</split>
						</split>
						<split pos="right">
							<feature> 22 </feature>
							<threshold> 8.0 </threshold>
							<split pos="left">
								<output> 0.0145973805 </output>
							</split>
							<split pos="right">
								<output> 8.277783E-4 </output>
							</split>
						</split>
					</split>
					<split pos="right">
						<output> 0.0061075585 </output>
					</split>
				</split>
				<split pos="right">
					<output> -0.0070019984 </output>
				</split>
			</split>
			<split pos="right">
				<feature> 22 </feature>
				<threshold> 22.0 </threshold>
				<split pos="left">
					<feature> 22 </feature>
					<threshold> 9.0 </threshold>
					<split pos="left">
						<output> 0.025237089 </output>
					</split>
					<split pos="right">
						<output> 6.757128E-4 </output>
					</split>
				</split>
				<split pos="right">
					<output> 0.063498706 </output>
				</split>
			</split>
		</split>
	</tree>
	<tree id="25" weight="0.1">
		<split>
			<feature> 23 </feature>
			<threshold> 34.0 </threshold>
			<split pos="left">
				<output> 0.027902389 </output>
			</split>
			<split pos="right">
				<feature> 33 </feature>
				<threshold> 0.004076878 </threshold>
				<split pos="left">
					<output> -0.0027586936 </output>
				</split>
				<split pos="right">
					<feature> 22 </feature>
					<threshold> 22.0 </threshold>
					<split pos="left">
						<feature> 28 </feature>
						<threshold> 0.0385777 </threshold>
						<split pos="left">
							<feature> 30 </feature>
							<threshold> 75.26475 </threshold>
							<split pos="left">
								<feature> 23 </feature>
								<threshold> 309.0 </threshold>
								<split pos="left">
									<feature> 23 </feature>
									<threshold> 263.0 </threshold>
									<split pos="left">
										<feature> 23 </feature>
										<threshold> 213.0 </threshold>
										<split pos="left">
											<feature> 27 </feature>
											<threshold> 1995.0 </threshold>
											<split pos="left">
												<output> -0.0055279257 </output>
											</split>
											<split pos="right">
												<output> 0.002360535 </output>
											</split>
										</split>
										<split pos="right">
											<output> 0.019359166 </output>
										</split>
									</split>
									<split pos="right">
										<output> -3.8808255E-4 </output>
									</split>
								</split>
								<split pos="right">
									<output> 0.012407222 </output>
								</split>
							</split>
							<split pos="right">
								<output> 0.022649791 </output>
							</split>
						</split>
						<split pos="right">
							<output> 0.08490506 </output>
						</split>
					</split>
					<split pos="right">
						<output> 0.016069429 </output>
					</split>
				</split>
			</split>
		</split>
	</tree>
	<tree id="26" weight="0.1">
		<split>
			<feature> 32 </feature>
			<threshold> 183.59438 </threshold>
			<split pos="left">
				<feature> 28 </feature>
				<threshold> 0.051578935 </threshold>
				<split pos="left">
					<feature> 30 </feature>
					<threshold> 13.373338 </threshold>
					<split pos="left">
						<output> -8.42209E-4 </output>
					</split>
					<split pos="right">
						<feature> 23 </feature>
						<threshold> 309.0 </threshold>
						<split pos="left">
							<feature> 22 </feature>
							<threshold> 9.0 </threshold>
							<split pos="left">
								<feature> 21 </feature>
								<threshold> 39.0 </threshold>
								<split pos="left">
									<feature> 27 </feature>
									<threshold> 2006.0 </threshold>
									<split pos="left">
										<output> 0.004779456 </output>
									</split>
									<split pos="right">
										<output> 0.03108079 </output>
									</split>
								</split>
								<split pos="right">
									<output> -0.0073708715 </output>
								</split>
							</split>
							<split pos="right">
								<feature> 22 </feature>
								<threshold> 16.0 </threshold>
								<split pos="left">
									<output> -4.3358852E-4 </output>
								</split>
								<split pos="right">
									<feature> 27 </feature>
									<threshold> 1999.0 </threshold>
									<split pos="left">
										<output> 0.049583945 </output>
									</split>
									<split pos="right">
										<output> -0.0037441158 </output>
									</split>
								</split>
							</split>
						</split>
						<split pos="right">
							<output> 0.0234103 </output>
						</split>
					</split>
				</split>
				<split pos="right">
					<output> 0.23360795 </output>
				</split>
			</split>
			<split pos="right">
				<output> 0.013547368 </output>
			</split>
		</split>
	</tree>
	<tree id="27" weight="0.1">
		<split>
			<feature> 23 </feature>
			<threshold> 34.0 </threshold>
			<split pos="left">
				<output> 0.024546485 </output>
			</split>
			<split pos="right">
				<feature> 33 </feature>
				<threshold> 0.004076878 </threshold>
				<split pos="left">
					<output> -0.0024745776 </output>
				</split>
				<split pos="right">
					<feature> 22 </feature>
					<threshold> 22.0 </threshold>
					<split pos="left">
						<feature> 28 </feature>
						<threshold> 0.0385777 </threshold>
						<split pos="left">
							<feature> 21 </feature>
							<threshold> 17.0 </threshold>
							<split pos="left">
								<output> -0.002064749 </output>
							</split>
							<split pos="right">
								<feature> 22 </feature>
								<threshold> 14.0 </threshold>
								<split pos="left">
									<feature> 22 </feature>
									<threshold> 9.0 </threshold>
									<split pos="left">
										<feature> 29 </feature>
										<threshold> 0.028301887 </threshold>
										<split pos="left">
											<feature> 30 </feature>
											<threshold> 15.348594 </threshold>
											<split pos="left">
												<output> -0.0051196553 </output>
											</split>
											<split pos="right">
												<output> 0.008876033 </output>
											</split>
										</split>
										<split pos="right">
											<output> 0.06592995 </output>
										</split>
									</split>
									<split pos="right">
										<output> 1.1970175E-4 </output>
									</split>
								</split>
								<split pos="right">
									<output> 0.006043409 </output>
								</split>
							</split>
						</split>
						<split pos="right">
							<output> 0.07379358 </output>
						</split>
					</split>
					<split pos="right">
						<output> 0.013527328 </output>
					</split>
				</split>
			</split>
		</split>
	</tree>
	<tree id="28" weight="0.1">
		<split>
			<feature> 20 </feature>
			<threshold> 11.0 </threshold>
			<split pos="left">
				<feature> 23 </feature>
				<threshold> 309.0 </threshold>
				<split pos="left">
					<feature> 22 </feature>
					<threshold> 17.0 </threshold>
					<split pos="left">
						<output> -1.0771866E-4 </output>
					</split>
					<split pos="right">
						<output> -0.0063382336 </output>
					</split>
				</split>
				<split pos="right">
					<output> -0.022809405 </output>
				</split>
			</split>
			<split pos="right">
				<feature> 22 </feature>
				<threshold> 16.0 </threshold>
				<split pos="left">
					<feature> 22 </feature>
					<threshold> 9.0 </threshold>
					<split pos="left">
						<feature> 28 </feature>
						<threshold> 0.020247988 </threshold>
						<split pos="left">
							<feature> 28 </feature>
							<threshold> 0.007246639 </threshold>
							<split pos="left">
								<output> -0.0139347585 </output>
							</split>
							<split pos="right">
								<feature> 19 </feature>
								<threshold> 726.5 </threshold>
								<split pos="left">
									<feature> 29 </feature>
									<threshold> 0.009125858 </threshold>
									<split pos="left">
										<output> 0.021666639 </output>
									</split>
									<split pos="right">
										<output> 1.0809219E-4 </output>
									</split>
								</split>
								<split pos="right">
									<output> 0.976487 </output>
								</split>
							</split>
						</split>
						<split pos="right">
							<output> 0.103685364 </output>
						</split>
					</split>
					<split pos="right">
						<output> 1.4759372E-4 </output>
					</split>
				</split>
				<split pos="right">
					<output> 0.010423562 </output>
				</split>
			</split>
		</split>
	</tree>
	<tree id="29" weight="0.1">
		<split>
			<feature> 23 </feature>
			<threshold> 34.0 </threshold>
			<split pos="left">
				<output> 0.021484446 </output>
			</split>
			<split pos="right">
				<feature> 33 </feature>
				<threshold> 0.0038986355 </threshold>
				<split pos="left">
					<output> -0.0024263656 </output>
				</split>
				<split pos="right">
					<feature> 22 </feature>
					<threshold> 22.0 </threshold>
					<split pos="left">
						<feature> 28 </feature>
						<threshold> 0.051578935 </threshold>
						<split pos="left">
							<feature> 22 </feature>
							<threshold> 21.0 </threshold>
							<split pos="left">
								<feature> 22 </feature>
								<threshold> 14.0 </threshold>
								<split pos="left">
									<feature> 20 </feature>
									<threshold> 14.0 </threshold>
									<split pos="left">
										<feature> 21 </feature>
										<threshold> 51.0 </threshold>
										<split pos="left">
											<output> -2.5383104E-5 </output>
										</split>
										<split pos="right">
											<output> -0.0039277556 </output>
										</split>
									</split>
									<split pos="right">
										<feature> 22 </feature>
										<threshold> 8.0 </threshold>
										<split pos="left">
											<output> 0.016751278 </output>
										</split>
										<split pos="right">
											<output> 9.0515247E-4 </output>
										</split>
									</split>
								</split>
								<split pos="right">
									<output> 0.005064963 </output>
								</split>
							</split>
							<split pos="right">
								<output> -0.0077830553 </output>
							</split>
						</split>
						<split pos="right">
							<output> 0.1994103 </output>
						</split>
					</split>
					<split pos="right">
						<output> 0.011709937 </output>
					</split>
				</split>
			</split>
		</split>
	</tree>
	<tree id="30" weight="0.1">
		<split>
			<feature> 32 </feature>
			<threshold> 183.59438 </threshold>
			<split pos="left">
				<feature> 21 </feature>
				<threshold> 46.0 </threshold>
				<split pos="left">
					<feature> 28 </feature>
					<threshold> 0.014280155 </threshold>
					<split pos="left">
						<feature> 22 </feature>
						<threshold> 21.0 </threshold>
						<split pos="left">
							<feature> 28 </feature>
							<threshold> 0.0068203663 </threshold>
							<split pos="left">
								<output> -0.0010164335 </output>
							</split>
							<split pos="right">
								<feature> 22 </feature>
								<threshold> 16.0 </threshold>
								<split pos="left">
									<feature> 27 </feature>
									<threshold> 2010.0 </threshold>
									<split pos="left">
										<feature> 22 </feature>
										<threshold> 8.0 </threshold>
										<split pos="left">
											<output> 0.006689481 </output>
										</split>
										<split pos="right">
											<output> -2.0129459E-4 </output>
										</split>
									</split>
									<split pos="right">
										<output> 0.00465454 </output>
									</split>
								</split>
								<split pos="right">
									<output> 0.008392763 </output>
								</split>
							</split>
						</split>
						<split pos="right">
							<output> -0.008127486 </output>
						</split>
					</split>
					<split pos="right">
						<feature> 22 </feature>
						<threshold> 22.0 </threshold>
						<split pos="left">
							<output> 0.0027242908 </output>
						</split>
						<split pos="right">
							<output> 0.102442734 </output>
						</split>
					</split>
				</split>
				<split pos="right">
					<output> -0.0020790133 </output>
				</split>
			</split>
			<split pos="right">
				<output> 0.011078352 </output>
			</split>
		</split>
	</tree>
	<tree id="31" weight="0.1">
		<split>
			<feature> 20 </feature>
			<threshold> 11.0 </threshold>
			<split pos="left">
				<feature> 23 </feature>
				<threshold> 309.0 </threshold>
				<split pos="left">
					<feature> 22 </feature>
					<threshold> 17.0 </threshold>
					<split pos="left">
						<output> -6.27985E-5 </output>
					</split>
					<split pos="right">
						<output> -0.0064093983 </output>
					</split>
				</split>
				<split pos="right">
					<output> -0.020397734 </output>
				</split>
			</split>
			<split pos="right">
				<feature> 23 </feature>
				<threshold> 34.0 </threshold>
				<split pos="left">
					<output> 0.034727424 </output>
				</split>
				<split pos="right">
					<feature> 23 </feature>
					<threshold> 309.0 </threshold>
					<split pos="left">
						<feature> 30 </feature>
						<threshold> 75.26475 </threshold>
						<split pos="left">
							<feature> 28 </feature>
							<threshold> 0.051578935 </threshold>
							<split pos="left">
								<feature> 22 </feature>
								<threshold> 22.0 </threshold>
								<split pos="left">
									<feature> 22 </feature>
									<threshold> 9.0 </threshold>
									<split pos="left">
										<output> 0.004892134 </output>
									</split>
									<split pos="right">
										<output> 5.747409E-5 </output>
									</split>
								</split>
								<split pos="right">
									<output> 0.016385058 </output>
								</split>
							</split>
							<split pos="right">
								<output> 0.3347416 </output>
							</split>
						</split>
						<split pos="right">
							<output> 0.030261414 </output>
						</split>
					</split>
					<split pos="right">
						<output> 0.018138036 </output>
					</split>
				</split>
			</split>
		</split>
	</tree>
	<tree id="32" weight="0.1">
		<split>
			<feature> 33 </feature>
			<threshold> 0.0038986355 </threshold>
			<split pos="left">
				<output> -0.0022823135 </output>
			</split>
			<split pos="right">
				<feature> 22 </feature>
				<threshold> 14.0 </threshold>
				<split pos="left">
					<feature> 23 </feature>
					<threshold> 309.0 </threshold>
					<split pos="left">
						<feature> 28 </feature>
						<threshold> 0.0385777 </threshold>
						<split pos="left">
							<feature> 28 </feature>
							<threshold> 0.024723863 </threshold>
							<split pos="left">
								<feature> 32 </feature>
								<threshold> 214.83858 </threshold>
								<split pos="left">
									<feature> 29 </feature>
									<threshold> 0.009125858 </threshold>
									<split pos="left">
										<feature> 22 </feature>
										<threshold> 8.0 </threshold>
										<split pos="left">
											<output> 0.008044248 </output>
										</split>
										<split pos="right">
											<output> 4.95285E-4 </output>
										</split>
									</split>
									<split pos="right">
										<output> -0.0011290301 </output>
									</split>
								</split>
								<split pos="right">
									<output> 0.012479142 </output>
								</split>
							</split>
							<split pos="right">
								<output> -0.06312113 </output>
							</split>
						</split>
						<split pos="right">
							<output> 0.05509048 </output>
						</split>
					</split>
					<split pos="right">
						<output> 0.008569503 </output>
					</split>
				</split>
				<split pos="right">
					<feature> 27 </feature>
					<threshold> 1999.0 </threshold>
					<split pos="left">
						<output> 0.018149307 </output>
					</split>
					<split pos="right">
						<output> -0.0011870658 </output>
					</split>
				</split>
			</split>
		</split>
	</tree>
	<tree id="33" weight="0.1">
		<split>
			<feature> 20 </feature>
			<threshold> 13.0 </threshold>
			<split pos="left">
				<feature> 22 </feature>
				<threshold> 8.0 </threshold>
				<split pos="left">
					<output> -0.009036872 </output>
				</split>
				<split pos="right">
					<feature> 22 </feature>
					<threshold> 21.0 </threshold>
					<split pos="left">
						<feature> 21 </feature>
						<threshold> 17.0 </threshold>
						<split pos="left">
							<output> -0.0021948603 </output>
						</split>
						<split pos="right">
							<output> 6.3546206E-4 </output>
						</split>
					</split>
					<split pos="right">
						<output> -0.007958844 </output>
					</split>
				</split>
			</split>
			<split pos="right">
				<feature> 28 </feature>
				<threshold> 0.013640745 </threshold>
				<split pos="left">
					<feature> 33 </feature>
					<threshold> 0.011940299 </threshold>
					<split pos="left">
						<feature> 23 </feature>
						<threshold> 309.0 </threshold>
						<split pos="left">
							<feature> 19 </feature>
							<threshold> 874.0703 </threshold>
							<split pos="left">
								<feature> 21 </feature>
								<threshold> 36.0 </threshold>
								<split pos="left">
									<output> 0.0016637556 </output>
								</split>
								<split pos="right">
									<output> -0.0013220615 </output>
								</split>
							</split>
							<split pos="right">
								<output> 0.10558948 </output>
							</split>
						</split>
						<split pos="right">
							<output> 0.015353428 </output>
						</split>
					</split>
					<split pos="right">
						<output> 0.077076204 </output>
					</split>
				</split>
				<split pos="right">
					<output> 0.00759319 </output>
				</split>
			</split>
		</split>
	</tree>
	<tree id="34" weight="0.1">
		<split>
			<feature> 21 </feature>
			<threshold> 46.0 </threshold>
			<split pos="left">
				<feature> 28 </feature>
				<threshold> 0.014280155 </threshold>
				<split pos="left">
					<feature> 22 </feature>
					<threshold> 21.0 </threshold>
					<split pos="left">
						<feature> 32 </feature>
						<threshold> 19.041658 </threshold>
						<split pos="left">
							<feature> 23 </feature>
							<threshold> 34.0 </threshold>
							<split pos="left">
								<output> 0.050896168 </output>
							</split>
							<split pos="right">
								<feature> 22 </feature>
								<threshold> 8.0 </threshold>
								<split pos="left">
									<output> 0.007706561 </output>
								</split>
								<split pos="right">
									<feature> 19 </feature>
									<threshold> 164.59766 </threshold>
									<split pos="left">
										<output> -2.2178516E-4 </output>
									</split>
									<split pos="right">
										<feature> 22 </feature>
										<threshold> 9.0 </threshold>
										<split pos="left">
											<output> 0.010101644 </output>
										</split>
										<split pos="right">
											<output> 0.0012416174 </output>
										</split>
									</split>
								</split>
							</split>
						</split>
						<split pos="right">
							<output> -0.0013732107 </output>
						</split>
					</split>
					<split pos="right">
						<output> -0.006894731 </output>
					</split>
				</split>
				<split pos="right">
					<feature> 22 </feature>
					<threshold> 22.0 </threshold>
					<split pos="left">
						<output> 0.0027373335 </output>
					</split>
					<split pos="right">
						<output> 0.09555938 </output>
					</split>
				</split>
			</split>
			<split pos="right">
				<output> -0.001889809 </output>
			</split>
		</split>
	</tree>
	<tree id="35" weight="0.1">
		<split>
			<feature> 28 </feature>
			<threshold> 0.0053284112 </threshold>
			<split pos="left">
				<output> -0.0015809104 </output>
			</split>
			<split pos="right">
				<feature> 22 </feature>
				<threshold> 16.0 </threshold>
				<split pos="left">
					<feature> 27 </feature>
					<threshold> 2010.0 </threshold>
					<split pos="left">
						<feature> 32 </feature>
						<threshold> 202.3409 </threshold>
						<split pos="left">
							<feature> 22 </feature>
							<threshold> 8.0 </threshold>
							<split pos="left">
								<feature> 27 </feature>
								<threshold> 1983.0 </threshold>
								<split pos="left">
									<output> 0.04829958 </output>
								</split>
								<split pos="right">
									<output> 2.667103E-4 </output>
								</split>
							</split>
							<split pos="right">
								<feature> 23 </feature>
								<threshold> 309.0 </threshold>
								<split pos="left">
									<output> -6.294977E-4 </output>
								</split>
								<split pos="right">
									<output> 0.008588808 </output>
								</split>
							</split>
						</split>
						<split pos="right">
							<output> -0.016770856 </output>
						</split>
					</split>
					<split pos="right">
						<output> 0.0036416315 </output>
					</split>
				</split>
				<split pos="right">
					<feature> 19 </feature>
					<threshold> 22.703125 </threshold>
					<split pos="left">
						<output> 0.08387778 </output>
					</split>
					<split pos="right">
						<feature> 27 </feature>
						<threshold> 1999.0 </threshold>
						<split pos="left">
							<output> 0.022773394 </output>
						</split>
						<split pos="right">
							<output> -0.0038942513 </output>
						</split>
					</split>
				</split>
			</split>
		</split>
	</tree>
	<tree id="36" weight="0.1">
		<split>
			<feature> 32 </feature>
			<threshold> 187.76027 </threshold>
			<split pos="left">
				<feature> 21 </feature>
				<threshold> 46.0 </threshold>
				<split pos="left">
					<feature> 28 </feature>
					<threshold> 0.014280155 </threshold>
					<split pos="left">
						<feature> 22 </feature>
						<threshold> 21.0 </threshold>
						<split pos="left">
							<feature> 32 </feature>
							<threshold> 19.041658 </threshold>
							<split pos="left">
								<feature> 23 </feature>
								<threshold> 34.0 </threshold>
								<split pos="left">
									<output> 0.044844244 </output>
								</split>
								<split pos="right">
									<feature> 19 </feature>
									<threshold> 175.94922 </threshold>
									<split pos="left">
										<output> -2.3771849E-5 </output>
									</split>
									<split pos="right">
										<feature> 22 </feature>
										<threshold> 9.0 </threshold>
										<split pos="left">
											<output> 0.0100583695 </output>
										</split>
										<split pos="right">
											<output> 0.0011229413 </output>
										</split>
									</split>
								</split>
							</split>
							<split pos="right">
								<output> -0.0013188663 </output>
							</split>
						</split>
						<split pos="right">
							<output> -0.0074892696 </output>
						</split>
					</split>
					<split pos="right">
						<feature> 22 </feature>
						<threshold> 22.0 </threshold>
						<split pos="left">
							<output> 0.00153674 </output>
						</split>
						<split pos="right">
							<output> 0.087419525 </output>
						</split>
					</split>
				</split>
				<split pos="right">
					<output> -0.0017797663 </output>
				</split>
			</split>
			<split pos="right">
				<output> 0.009435224 </output>
			</split>
		</split>
	</tree>
	<tree id="37" weight="0.1">
		<split>
			<feature> 33 </feature>
			<threshold> 0.004076878 </threshold>
			<split pos="left">
				<output> -0.0019770751 </output>
			</split>
			<split pos="right">
				<feature> 22 </feature>
				<threshold> 14.0 </threshold>
				<split pos="left">
					<feature> 28 </feature>
					<threshold> 0.051578935 </threshold>
					<split pos="left">
						<feature> 20 </feature>
						<threshold> 18.0 </threshold>
						<split pos="left">
							<feature> 29 </feature>
							<threshold> 0.009300834 </threshold>
							<split pos="left">
								<output> 4.8139278E-4 </output>
							</split>
							<split pos="right">
								<output> -0.001586638 </output>
							</split>
						</split>
						<split pos="right">
							<output> 0.0021922642 </output>
						</split>
					</split>
					<split pos="right">
						<output> 0.1504819 </output>
					</split>
				</split>
				<split pos="right">
					<feature> 32 </feature>
					<threshold> 146.10133 </threshold>
					<split pos="left">
						<feature> 28 </feature>
						<threshold> 0.0053284112 </threshold>
						<split pos="left">
							<output> -0.014331925 </output>
						</split>
						<split pos="right">
							<feature> 33 </feature>
							<threshold> 0.011940299 </threshold>
							<split pos="left">
								<feature> 23 </feature>
								<threshold> 213.0 </threshold>
								<split pos="left">
									<output> 4.2555123E-4 </output>
								</split>
								<split pos="right">
									<output> 0.017831676 </output>
								</split>
							</split>
							<split pos="right">
								<output> 0.16757974 </output>
							</split>
						</split>
					</split>
					<split pos="right">
						<output> 0.021619068 </output>
					</split>
				</split>
			</split>
		</split>
	</tree>
	<tree id="38" weight="0.1">
		<split>
			<feature> 20 </feature>
			<threshold> 6.0 </threshold>
			<split pos="left">
				<output> -0.0019688446 </output>
			</split>
			<split pos="right">
				<feature> 28 </feature>
				<threshold> 0.0068203663 </threshold>
				<split pos="left">
					<output> -0.0013505226 </output>
				</split>
				<split pos="right">
					<feature> 22 </feature>
					<threshold> 16.0 </threshold>
					<split pos="left">
						<feature> 22 </feature>
						<threshold> 9.0 </threshold>
						<split pos="left">
							<feature> 29 </feature>
							<threshold> 0.028301887 </threshold>
							<split pos="left">
								<feature> 23 </feature>
								<threshold> 78.0 </threshold>
								<split pos="left">
									<output> -8.1644463E-4 </output>
								</split>
								<split pos="right">
									<output> 0.018495932 </output>
								</split>
							</split>
							<split pos="right">
								<output> 0.052640174 </output>
							</split>
						</split>
						<split pos="right">
							<feature> 28 </feature>
							<threshold> 0.0138538815 </threshold>
							<split pos="left">
								<output> 4.583046E-4 </output>
							</split>
							<split pos="right">
								<output> -0.0053479397 </output>
							</split>
						</split>
					</split>
					<split pos="right">
						<feature> 27 </feature>
						<threshold> 1999.0 </threshold>
						<split pos="left">
							<output> 0.03835097 </output>
						</split>
						<split pos="right">
							<feature> 22 </feature>
							<threshold> 22.0 </threshold>
							<split pos="left">
								<output> 0.0036059632 </output>
							</split>
							<split pos="right">
								<output> -0.0346256 </output>
							</split>
						</split>
					</split>
				</split>
			</split>
		</split>
	</tree>
	<tree id="39" weight="0.1">
		<split>
			<feature> 20 </feature>
			<threshold> 13.0 </threshold>
			<split pos="left">
				<feature> 22 </feature>
				<threshold> 8.0 </threshold>
				<split pos="left">
					<output> -0.009832917 </output>
				</split>
				<split pos="right">
					<feature> 22 </feature>
					<threshold> 17.0 </threshold>
					<split pos="left">
						<output> 2.3296152E-4 </output>
					</split>
					<split pos="right">
						<output> -0.005100405 </output>
					</split>
				</split>
			</split>
			<split pos="right">
				<feature> 23 </feature>
				<threshold> 309.0 </threshold>
				<split pos="left">
					<feature> 23 </feature>
					<threshold> 263.0 </threshold>
					<split pos="left">
						<feature> 28 </feature>
						<threshold> 0.0138538815 </threshold>
						<split pos="left">
							<feature> 23 </feature>
							<threshold> 230.0 </threshold>
							<split pos="left">
								<feature> 27 </feature>
								<threshold> 1992.0 </threshold>
								<split pos="left">
									<output> -0.01215047 </output>
								</split>
								<split pos="right">
									<feature> 19 </feature>
									<threshold> 737.85156 </threshold>
									<split pos="left">
										<output> 0.0011618785 </output>
									</split>
									<split pos="right">
										<output> 0.27127114 </output>
									</split>
								</split>
							</split>
							<split pos="right">
								<output> 0.018004056 </output>
							</split>
						</split>
						<split pos="right">
							<output> 0.020002646 </output>
						</split>
					</split>
					<split pos="right">
						<output> -8.188056E-4 </output>
					</split>
				</split>
				<split pos="right">
					<output> 0.016192852 </output>
				</split>
			</split>
		</split>
	</tree>
	<tree id="40" weight="0.1">
		<split>
			<feature> 21 </feature>
			<threshold> 46.0 </threshold>
			<split pos="left">
				<feature> 22 </feature>
				<threshold> 22.0 </threshold>
				<split pos="left">
					<feature> 22 </feature>
					<threshold> 21.0 </threshold>
					<split pos="left">
						<feature> 21 </feature>
						<threshold> 17.0 </threshold>
						<split pos="left">
							<output> -0.0015368514 </output>
						</split>
						<split pos="right">
							<feature> 22 </feature>
							<threshold> 16.0 </threshold>
							<split pos="left">
								<feature> 27 </feature>
								<threshold> 2010.0 </threshold>
								<split pos="left">
									<feature> 32 </feature>
									<threshold> 202.3409 </threshold>
									<split pos="left">
										<feature> 22 </feature>
										<threshold> 8.0 </threshold>
										<split pos="left">
											<feature> 27 </feature>
											<threshold> 1983.0 </threshold>
											<split pos="left">
												<output> 0.05287514 </output>
											</split>
											<split pos="right">
												<output> -0.0010629051 </output>
											</split>
										</split>
										<split pos="right">
											<output> -1.5377397E-4 </output>
										</split>
									</split>
									<split pos="right">
										<output> -0.014346242 </output>
									</split>
								</split>
								<split pos="right">
									<output> 0.0043912497 </output>
								</split>
							</split>
							<split pos="right">
								<output> 0.006354956 </output>
							</split>
						</split>
					</split>
					<split pos="right">
						<output> -0.009447343 </output>
					</split>
				</split>
				<split pos="right">
					<output> 0.009170904 </output>
				</split>
			</split>
			<split pos="right">
				<output> -0.0016658829 </output>
			</split>
		</split>
	</tree>
	<tree id="41" weight="0.1">
		<split>
			<feature> 32 </feature>
			<threshold> 175.26259 </threshold>
			<split pos="left">
				<feature> 22 </feature>
				<threshold> 17.0 </threshold>
				<split pos="left">
					<feature> 22 </feature>
					<threshold> 16.0 </threshold>
					<split pos="left">
						<feature> 32 </feature>
						<threshold> 135.6866 </threshold>
						<split pos="left">
							<feature> 30 </feature>
							<threshold> 19.957525 </threshold>
							<split pos="left">
								<feature> 28 </feature>
								<threshold> 0.017050935 </threshold>
								<split pos="left">
									<feature> 28 </feature>
									<threshold> 0.0138538815 </threshold>
									<split pos="left">
										<feature> 22 </feature>
										<threshold> 9.0 </threshold>
										<split pos="left">
											<output> -0.0022052778 </output>
										</split>
										<split pos="right">
											<output> 3.990646E-4 </output>
										</split>
									</split>
									<split pos="right">
										<output> 0.040231895 </output>
									</split>
								</split>
								<split pos="right">
									<output> -0.016358102 </output>
								</split>
							</split>
							<split pos="right">
								<output> 0.0048175296 </output>
							</split>
						</split>
						<split pos="right">
							<output> -0.002739982 </output>
						</split>
					</split>
					<split pos="right">
						<output> 0.014881189 </output>
					</split>
				</split>
				<split pos="right">
					<feature> 19 </feature>
					<threshold> 22.703125 </threshold>
					<split pos="left">
						<output> 0.049852245 </output>
					</split>
					<split pos="right">
						<output> -0.0061902865 </output>
					</split>
				</split>
			</split>
			<split pos="right">
				<output> 0.006179168 </output>
			</split>
		</split>
	</tree>
	<tree id="42" weight="0.1">
		<split>
			<feature> 33 </feature>
			<threshold> 0.0038986355 </threshold>
			<split pos="left">
				<output> -0.0019154504 </output>
			</split>
			<split pos="right">
				<feature> 23 </feature>
				<threshold> 34.0 </threshold>
				<split pos="left">
					<output> 0.016057387 </output>
				</split>
				<split pos="right">
					<feature> 20 </feature>
					<threshold> 6.0 </threshold>
					<split pos="left">
						<output> -0.0018364373 </output>
					</split>
					<split pos="right">
						<feature> 22 </feature>
						<threshold> 22.0 </threshold>
						<split pos="left">
							<feature> 19 </feature>
							<threshold> 720.8242 </threshold>
							<split pos="left">
								<feature> 23 </feature>
								<threshold> 309.0 </threshold>
								<split pos="left">
									<feature> 30 </feature>
									<threshold> 75.26475 </threshold>
									<split pos="left">
										<feature> 30 </feature>
										<threshold> 16.007013 </threshold>
										<split pos="left">
											<feature> 22 </feature>
											<threshold> 21.0 </threshold>
											<split pos="left">
												<output> 9.365493E-4 </output>
											</split>
											<split pos="right">
												<output> -0.008130117 </output>
											</split>
										</split>
										<split pos="right">
											<output> -0.0010375674 </output>
										</split>
									</split>
									<split pos="right">
										<output> 0.014039882 </output>
									</split>
								</split>
								<split pos="right">
									<output> 0.0074046194 </output>
								</split>
							</split>
							<split pos="right">
								<output> 0.05521715 </output>
							</split>
						</split>
						<split pos="right">
							<output> 0.011392844 </output>
						</split>
					</split>
				</split>
			</split>
		</split>
	</tree>
	<tree id="43" weight="0.1">
		<split>
			<feature> 28 </feature>
			<threshold> 0.051578935 </threshold>
			<split pos="left">
				<feature> 21 </feature>
				<threshold> 46.0 </threshold>
				<split pos="left">
					<feature> 28 </feature>
					<threshold> 0.03985651 </threshold>
					<split pos="left">
						<feature> 28 </feature>
						<threshold> 0.014280155 </threshold>
						<split pos="left">
							<feature> 22 </feature>
							<threshold> 21.0 </threshold>
							<split pos="left">
								<feature> 32 </feature>
								<threshold> 19.041658 </threshold>
								<split pos="left">
									<feature> 23 </feature>
									<threshold> 34.0 </threshold>
									<split pos="left">
										<output> 0.037455883 </output>
									</split>
									<split pos="right">
										<feature> 32 </feature>
										<threshold> -39.280746 </threshold>
										<split pos="left">
											<output> -7.727932E-4 </output>
										</split>
										<split pos="right">
											<feature> 22 </feature>
											<threshold> 8.0 </threshold>
											<split pos="left">
												<output> 0.010722331 </output>
											</split>
											<split pos="right">
												<output> 8.0265536E-4 </output>
											</split>
										</split>
									</split>
								</split>
								<split pos="right">
									<output> -0.0013773838 </output>
								</split>
							</split>
							<split pos="right">
								<output> -0.005986614 </output>
							</split>
						</split>
						<split pos="right">
							<output> 0.0043854136 </output>
						</split>
					</split>
					<split pos="right">
						<output> -0.10500671 </output>
					</split>
				</split>
				<split pos="right">
					<output> -0.0015280164 </output>
				</split>
			</split>
			<split pos="right">
				<output> 0.13494587 </output>
			</split>
		</split>
	</tree>
	<tree id="44" weight="0.1">
		<split>
			<feature> 28 </feature>
			<threshold> 0.0385777 </threshold>
			<split pos="left">
				<feature> 28 </feature>
				<threshold> 0.024723863 </threshold>
				<split pos="left">
					<feature> 20 </feature>
					<threshold> 11.0 </threshold>
					<split pos="left">
						<feature> 23 </feature>
						<threshold> 309.0 </threshold>
						<split pos="left">
							<output> -4.8500963E-4 </output>
						</split>
						<split pos="right">
							<output> -0.020364247 </output>
						</split>
					</split>
					<split pos="right">
						<feature> 28 </feature>
						<threshold> 0.011722513 </threshold>
						<split pos="left">
							<feature> 32 </feature>
							<threshold> 19.041658 </threshold>
							<split pos="left">
								<feature> 28 </feature>
								<threshold> 0.011296239 </threshold>
								<split pos="left">
									<feature> 28 </feature>
									<threshold> 0.0068203663 </threshold>
									<split pos="left">
										<output> -0.0022410087 </output>
									</split>
									<split pos="right">
										<feature> 22 </feature>
										<threshold> 8.0 </threshold>
										<split pos="left">
											<output> 0.019192163 </output>
										</split>
										<split pos="right">
											<output> 0.0012812492 </output>
										</split>
									</split>
								</split>
								<split pos="right">
									<output> 0.46689168 </output>
								</split>
							</split>
							<split pos="right">
								<output> -0.0022242707 </output>
							</split>
						</split>
						<split pos="right">
							<output> 0.004070756 </output>
						</split>
					</split>
				</split>
				<split pos="right">
					<output> -0.058026496 </output>
				</split>
			</split>
			<split pos="right">
				<output> 0.04674674 </output>
			</split>
		</split>
	</tree>
	<tree id="45" weight="0.1">
		<split>
			<feature> 33 </feature>
			<threshold> 0.0038986355 </threshold>
			<split pos="left">
				<output> -0.0017492922 </output>
			</split>
			<split pos="right">
				<feature> 20 </feature>
				<threshold> 12.0 </threshold>
				<split pos="left">
					<feature> 22 </feature>
					<threshold> 8.0 </threshold>
					<split pos="left">
						<output> -0.009902036 </output>
					</split>
					<split pos="right">
						<feature> 23 </feature>
						<threshold> 309.0 </threshold>
						<split pos="left">
							<feature> 28 </feature>
							<threshold> 0.012788197 </threshold>
							<split pos="left">
								<output> 3.125584E-4 </output>
							</split>
							<split pos="right">
								<output> -0.0040286486 </output>
							</split>
						</split>
						<split pos="right">
							<output> -0.011131625 </output>
						</split>
					</split>
				</split>
				<split pos="right">
					<feature> 22 </feature>
					<threshold> 22.0 </threshold>
					<split pos="left">
						<feature> 23 </feature>
						<threshold> 34.0 </threshold>
						<split pos="left">
							<output> 0.030491523 </output>
						</split>
						<split pos="right">
							<feature> 23 </feature>
							<threshold> 309.0 </threshold>
							<split pos="left">
								<feature> 22 </feature>
								<threshold> 9.0 </threshold>
								<split pos="left">
									<output> 0.0059061497 </output>
								</split>
								<split pos="right">
									<output> -1.5130627E-4 </output>
								</split>
							</split>
							<split pos="right">
								<output> 0.015752206 </output>
							</split>
						</split>
					</split>
					<split pos="right">
						<output> 0.019174894 </output>
					</split>
				</split>
			</split>
		</split>
	</tree>
	<tree id="46" weight="0.1">
		<split>
			<feature> 28 </feature>
			<threshold> 0.0385777 </threshold>
			<split pos="left">
				<feature> 28 </feature>
				<threshold> 0.024723863 </threshold>
				<split pos="left">
					<feature> 21 </feature>
					<threshold> 46.0 </threshold>
					<split pos="left">
						<feature> 32 </feature>
						<threshold> 248.16573 </threshold>
						<split pos="left">
							<feature> 28 </feature>
							<threshold> 0.021953084 </threshold>
							<split pos="left">
								<feature> 22 </feature>
								<threshold> 22.0 </threshold>
								<split pos="left">
									<feature> 22 </feature>
									<threshold> 21.0 </threshold>
									<split pos="left">
										<feature> 21 </feature>
										<threshold> 17.0 </threshold>
										<split pos="left">
											<output> -0.0013653048 </output>
										</split>
										<split pos="right">
											<feature> 22 </feature>
											<threshold> 16.0 </threshold>
											<split pos="left">
												<output> 3.0845025E-4 </output>
											</split>
											<split pos="right">
												<output> 0.005153459 </output>
											</split>
										</split>
									</split>
									<split pos="right">
										<output> -0.0076136095 </output>
									</split>
								</split>
								<split pos="right">
									<output> 0.007305014 </output>
								</split>
							</split>
							<split pos="right">
								<output> 0.00793211 </output>
							</split>
						</split>
						<split pos="right">
							<output> 0.023287728 </output>
						</split>
					</split>
					<split pos="right">
						<output> -0.0014618502 </output>
					</split>
				</split>
				<split pos="right">
					<output> -0.052322973 </output>
				</split>
			</split>
			<split pos="right">
				<output> 0.041895248 </output>
			</split>
		</split>
	</tree>
	<tree id="47" weight="0.1">
		<split>
			<feature> 20 </feature>
			<threshold> 8.0 </threshold>
			<split pos="left">
				<output> -9.921867E-4 </output>
			</split>
			<split pos="right">
				<feature> 28 </feature>
				<threshold> 0.051578935 </threshold>
				<split pos="left">
					<feature> 33 </feature>
					<threshold> 0.011538462 </threshold>
					<split pos="left">
						<feature> 28 </feature>
						<threshold> 0.005115275 </threshold>
						<split pos="left">
							<output> -0.0016902729 </output>
						</split>
						<split pos="right">
							<feature> 22 </feature>
							<threshold> 16.0 </threshold>
							<split pos="left">
								<feature> 22 </feature>
								<threshold> 9.0 </threshold>
								<split pos="left">
									<feature> 29 </feature>
									<threshold> 0.03696498 </threshold>
									<split pos="left">
										<feature> 21 </feature>
										<threshold> 39.0 </threshold>
										<split pos="left">
											<output> 0.0064875884 </output>
										</split>
										<split pos="right">
											<output> -0.010176733 </output>
										</split>
									</split>
									<split pos="right">
										<output> 0.052557282 </output>
									</split>
								</split>
								<split pos="right">
									<output> -1.5803802E-4 </output>
								</split>
							</split>
							<split pos="right">
								<feature> 27 </feature>
								<threshold> 1999.0 </threshold>
								<split pos="left">
									<output> 0.037720244 </output>
								</split>
								<split pos="right">
									<output> -0.0037300524 </output>
								</split>
							</split>
						</split>
					</split>
					<split pos="right">
						<output> 0.0161536 </output>
					</split>
				</split>
				<split pos="right">
					<output> 0.25517362 </output>
				</split>
			</split>
		</split>
	</tree>
	<tree id="48" weight="0.1">
		<split>
			<feature> 22 </feature>
			<threshold> 17.0 </threshold>
			<split pos="left">
				<feature> 22 </feature>
				<threshold> 16.0 </threshold>
				<split pos="left">
					<feature> 30 </feature>
					<threshold> 31.150642 </threshold>
					<split pos="left">
						<feature> 30 </feature>
						<threshold> 19.957525 </threshold>
						<split pos="left">
							<feature> 28 </feature>
							<threshold> 0.017050935 </threshold>
							<split pos="left">
								<feature> 28 </feature>
								<threshold> 0.016837798 </threshold>
								<split pos="left">
									<feature> 29 </feature>
									<threshold> 0.028301887 </threshold>
									<split pos="left">
										<feature> 22 </feature>
										<threshold> 9.0 </threshold>
										<split pos="left">
											<output> -0.0024913838 </output>
										</split>
										<split pos="right">
											<output> 4.829559E-4 </output>
										</split>
									</split>
									<split pos="right">
										<output> 0.0365973 </output>
									</split>
								</split>
								<split pos="right">
									<output> 0.18312274 </output>
								</split>
							</split>
							<split pos="right">
								<output> -0.015917297 </output>
							</split>
						</split>
						<split pos="right">
							<output> 0.01265032 </output>
						</split>
					</split>
					<split pos="right">
						<output> -0.0022664482 </output>
					</split>
				</split>
				<split pos="right">
					<output> 0.01364407 </output>
				</split>
			</split>
			<split pos="right">
				<feature> 19 </feature>
				<threshold> 22.703125 </threshold>
				<split pos="left">
					<output> 0.043768037 </output>
				</split>
				<split pos="right">
					<output> -0.005144187 </output>
				</split>
			</split>
		</split>
	</tree>
	<tree id="49" weight="0.1">
		<split>
			<feature> 22 </feature>
			<threshold> 17.0 </threshold>
			<split pos="left">
				<feature> 22 </feature>
				<threshold> 16.0 </threshold>
				<split pos="left">
					<feature> 27 </feature>
					<threshold> 2010.0 </threshold>
					<split pos="left">
						<feature> 32 </feature>
						<threshold> 202.3409 </threshold>
						<split pos="left">
							<feature> 23 </feature>
							<threshold> 78.0 </threshold>
							<split pos="left">
								<output> -0.0020132083 </output>
							</split>
							<split pos="right">
								<feature> 28 </feature>
								<threshold> 0.014706429 </threshold>
								<split pos="left">
									<feature> 22 </feature>
									<threshold> 8.0 </threshold>
									<split pos="left">
										<output> 0.009225132 </output>
									</split>
									<split pos="right">
										<output> 3.189416E-4 </output>
									</split>
								</split>
								<split pos="right">
									<output> -0.010344178 </output>
								</split>
							</split>
						</split>
						<split pos="right">
							<output> -0.018423783 </output>
						</split>
					</split>
					<split pos="right">
						<output> 0.0020156547 </output>
					</split>
				</split>
				<split pos="right">
					<output> 0.012279656 </output>
				</split>
			</split>
			<split pos="right">
				<feature> 32 </feature>
				<threshold> 237.75099 </threshold>
				<split pos="left">
					<feature> 27 </feature>
					<threshold> 2003.0 </threshold>
					<split pos="left">
						<output> 0.00794749 </output>
					</split>
					<split pos="right">
						<output> -0.012321024 </output>
					</split>
				</split>
				<split pos="right">
					<output> 0.32099584 </output>
				</split>
			</split>
		</split>
	</tree>
	<tree id="50" weight="0.1">
		<split>
			<feature> 32 </feature>
			<threshold> 175.26259 </threshold>
			<split pos="left">
				<feature> 22 </feature>
				<threshold> 17.0 </threshold>
				<split pos="left">
					<feature> 22 </feature>
					<threshold> 16.0 </threshold>
					<split pos="left">
						<feature> 30 </feature>
						<threshold> 31.150642 </threshold>
						<split pos="left">
							<feature> 30 </feature>
							<threshold> 19.957525 </threshold>
							<split pos="left">
								<feature> 28 </feature>
								<threshold> 0.017050935 </threshold>
								<split pos="left">
									<feature> 28 </feature>
									<threshold> 0.016837798 </threshold>
									<split pos="left">
										<feature> 29 </feature>
										<threshold> 0.028301887 </threshold>
										<split pos="left">
											<feature> 22 </feature>
											<threshold> 9.0 </threshold>
											<split pos="left">
												<output> -0.0022741542 </output>
											</split>
											<split pos="right">
												<output> 4.086802E-4 </output>
											</split>
										</split>
										<split pos="right">
											<output> 0.03334848 </output>
										</split>
									</split>
									<split pos="right">
										<output> 0.16518387 </output>
									</split>
								</split>
								<split pos="right">
									<output> -0.013856788 </output>
								</split>
							</split>
							<split pos="right">
								<output> 0.01171182 </output>
							</split>
						</split>
						<split pos="right">
							<output> -0.0021863526 </output>
						</split>
					</split>
					<split pos="right">
						<output> 0.010654106 </output>
					</split>
				</split>
				<split pos="right">
					<output> -0.0033318433 </output>
				</split>
			</split>
			<split pos="right">
				<output> 0.0051204716 </output>
			</split>
		</split>
	</tree>
	<tree id="51" weight="0.1">
		<split>
			<feature> 33 </feature>
			<threshold> 0.0038986355 </threshold>
			<split pos="left">
				<output> -0.0015983075 </output>
			</split>
			<split pos="right">
				<feature> 19 </feature>
				<threshold> 720.8242 </threshold>
				<split pos="left">
					<feature> 20 </feature>
					<threshold> 4.0 </threshold>
					<split pos="left">
						<output> -0.0030321812 </output>
					</split>
					<split pos="right">
						<feature> 22 </feature>
						<threshold> 22.0 </threshold>
						<split pos="left">
							<feature> 21 </feature>
							<threshold> 17.0 </threshold>
							<split pos="left">
								<output> -0.0016323994 </output>
							</split>
							<split pos="right">
								<feature> 23 </feature>
								<threshold> 44.0 </threshold>
								<split pos="left">
									<output> 0.0023455028 </output>
								</split>
								<split pos="right">
									<feature> 28 </feature>
									<threshold> 0.017264072 </threshold>
									<split pos="left">
										<feature> 28 </feature>
										<threshold> 0.01598525 </threshold>
										<split pos="left">
											<feature> 23 </feature>
											<threshold> 174.0 </threshold>
											<split pos="left">
												<output> -0.0024156817 </output>
											</split>
											<split pos="right">
												<output> 6.593199E-4 </output>
											</split>
										</split>
										<split pos="right">
											<output> 0.07367548 </output>
										</split>
									</split>
									<split pos="right">
										<output> -0.007495794 </output>
									</split>
								</split>
							</split>
						</split>
						<split pos="right">
							<output> 0.007925976 </output>
						</split>
					</split>
				</split>
				<split pos="right">
					<output> 0.037734427 </output>
				</split>
			</split>
		</split>
	</tree>
	<tree id="52" weight="0.1">
		<split>
			<feature> 27 </feature>
			<threshold> 2014.0 </threshold>
			<split pos="left">
				<feature> 28 </feature>
				<threshold> 0.0385777 </threshold>
				<split pos="left">
					<feature> 28 </feature>
					<threshold> 0.024723863 </threshold>
					<split pos="left">
						<feature> 32 </feature>
						<threshold> 187.76027 </threshold>
						<split pos="left">
							<feature> 22 </feature>
							<threshold> 17.0 </threshold>
							<split pos="left">
								<feature> 22 </feature>
								<threshold> 16.0 </threshold>
								<split pos="left">
									<feature> 30 </feature>
									<threshold> 30.492224 </threshold>
									<split pos="left">
										<feature> 30 </feature>
										<threshold> 19.957525 </threshold>
										<split pos="left">
											<feature> 28 </feature>
											<threshold> 0.017050935 </threshold>
											<split pos="left">
												<output> 1.3275794E-4 </output>
											</split>
											<split pos="right">
												<output> -0.013628894 </output>
											</split>
										</split>
										<split pos="right">
											<output> 0.010664961 </output>
										</split>
									</split>
									<split pos="right">
										<output> -0.0020112367 </output>
									</split>
								</split>
								<split pos="right">
									<output> 0.009852153 </output>
								</split>
							</split>
							<split pos="right">
								<output> -0.0024819134 </output>
							</split>
						</split>
						<split pos="right">
							<output> 0.0064431154 </output>
						</split>
					</split>
					<split pos="right">
						<output> -0.04620733 </output>
					</split>
				</split>
				<split pos="right">
					<output> 0.06200169 </output>
				</split>
			</split>
			<split pos="right">
				<output> -0.015827676 </output>
			</split>
		</split>
	</tree>
	<tree id="53" weight="0.1">
		<split>
			<feature> 33 </feature>
			<threshold> 0.011940299 </threshold>
			<split pos="left">
				<feature> 32 </feature>
				<threshold> 175.26259 </threshold>
				<split pos="left">
					<feature> 22 </feature>
					<threshold> 17.0 </threshold>
					<split pos="left">
						<feature> 22 </feature>
						<threshold> 16.0 </threshold>
						<split pos="left">
							<feature> 31 </feature>
							<threshold> 79.83375 </threshold>
							<split pos="left">
								<feature> 30 </feature>
								<threshold> 19.957525 </threshold>
								<split pos="left">
									<feature> 22 </feature>
									<threshold> 8.0 </threshold>
									<split pos="left">
										<output> -0.0039258394 </output>
									</split>
									<split pos="right">
										<feature> 27 </feature>
										<threshold> 2010.0 </threshold>
										<split pos="left">
											<output> -4.3853637E-5 </output>
										</split>
										<split pos="right">
											<output> 0.001781895 </output>
										</split>
									</split>
								</split>
								<split pos="right">
									<output> 0.005838087 </output>
								</split>
							</split>
							<split pos="right">
								<output> -0.0018441578 </output>
							</split>
						</split>
						<split pos="right">
							<output> 0.008603123 </output>
						</split>
					</split>
					<split pos="right">
						<feature> 27 </feature>
						<threshold> 1999.0 </threshold>
						<split pos="left">
							<output> 0.010304217 </output>
						</split>
						<split pos="right">
							<output> -0.009179315 </output>
						</split>
					</split>
				</split>
				<split pos="right">
					<output> 0.0043752063 </output>
				</split>
			</split>
			<split pos="right">
				<output> 0.013764543 </output>
			</split>
		</split>
	</tree>
	<tree id="54" weight="0.1">
		<split>
			<feature> 21 </feature>
			<threshold> 46.0 </threshold>
			<split pos="left">
				<feature> 28 </feature>
				<threshold> 0.038790833 </threshold>
				<split pos="left">
					<feature> 28 </feature>
					<threshold> 0.0385777 </threshold>
					<split pos="left">
						<feature> 28 </feature>
						<threshold> 0.014280155 </threshold>
						<split pos="left">
							<feature> 22 </feature>
							<threshold> 21.0 </threshold>
							<split pos="left">
								<feature> 32 </feature>
								<threshold> 19.041658 </threshold>
								<split pos="left">
									<feature> 23 </feature>
									<threshold> 34.0 </threshold>
									<split pos="left">
										<output> 0.031912915 </output>
									</split>
									<split pos="right">
										<feature> 28 </feature>
										<threshold> 0.011083102 </threshold>
										<split pos="left">
											<feature> 19 </feature>
											<threshold> 266.76172 </threshold>
											<split pos="left">
												<output> 2.738751E-4 </output>
											</split>
											<split pos="right">
												<output> 0.0031124458 </output>
											</split>
										</split>
										<split pos="right">
											<output> 0.024057949 </output>
										</split>
									</split>
								</split>
								<split pos="right">
									<output> -0.0015705101 </output>
								</split>
							</split>
							<split pos="right">
								<output> -0.005544286 </output>
							</split>
						</split>
						<split pos="right">
							<output> 0.003762094 </output>
						</split>
					</split>
					<split pos="right">
						<output> 0.19947211 </output>
					</split>
				</split>
				<split pos="right">
					<output> -0.07267998 </output>
				</split>
			</split>
			<split pos="right">
				<output> -0.0012487764 </output>
			</split>
		</split>
	</tree>
	<tree id="55" weight="0.1">
		<split>
			<feature> 27 </feature>
			<threshold> 2014.0 </threshold>
			<split pos="left">
				<feature> 28 </feature>
				<threshold> 0.0385777 </threshold>
				<split pos="left">
					<feature> 28 </feature>
					<threshold> 0.024723863 </threshold>
					<split pos="left">
						<feature> 30 </feature>
						<threshold> 13.373338 </threshold>
						<split pos="left">
							<output> -5.7229836E-4 </output>
						</split>
						<split pos="right">
							<feature> 23 </feature>
							<threshold> 309.0 </threshold>
							<split pos="left">
								<feature> 23 </feature>
								<threshold> 34.0 </threshold>
								<split pos="left">
									<output> 0.031266 </output>
								</split>
								<split pos="right">
									<feature> 22 </feature>
									<threshold> 9.0 </threshold>
									<split pos="left">
										<feature> 20 </feature>
										<threshold> 36.0 </threshold>
										<split pos="left">
											<output> 0.0042828484 </output>
										</split>
										<split pos="right">
											<output> 0.5350637 </output>
										</split>
									</split>
									<split pos="right">
										<feature> 22 </feature>
										<threshold> 22.0 </threshold>
										<split pos="left">
											<output> -5.523256E-4 </output>
										</split>
										<split pos="right">
											<output> 0.011176305 </output>
										</split>
									</split>
								</split>
							</split>
							<split pos="right">
								<output> 0.01767458 </output>
							</split>
						</split>
					</split>
					<split pos="right">
						<output> -0.0420958 </output>
					</split>
				</split>
				<split pos="right">
					<output> 0.057922903 </output>
				</split>
			</split>
			<split pos="right">
				<output> -0.014296673 </output>
			</split>
		</split>
	</tree>
	<tree id="56" weight="0.1">
		<split>
			<feature> 20 </feature>
			<threshold> 4.0 </threshold>
			<split pos="left">
				<output> -0.0023724816 </output>
			</split>
			<split pos="right">
				<feature> 33 </feature>
				<threshold> 0.011940299 </threshold>
				<split pos="left">
					<feature> 33 </feature>
					<threshold> 0.0038986355 </threshold>
					<split pos="left">
						<output> -0.001448071 </output>
					</split>
					<split pos="right">
						<feature> 22 </feature>
						<threshold> 14.0 </threshold>
						<split pos="left">
							<feature> 29 </feature>
							<threshold> 0.009300834 </threshold>
							<split pos="left">
								<feature> 19 </feature>
								<threshold> 874.0703 </threshold>
								<split pos="left">
									<feature> 19 </feature>
									<threshold> 266.76172 </threshold>
									<split pos="left">
										<output> 3.0255894E-4 </output>
									</split>
									<split pos="right">
										<output> 0.0033204989 </output>
									</split>
								</split>
								<split pos="right">
									<output> 0.09448334 </output>
								</split>
							</split>
							<split pos="right">
